digraph Tree {
node [shape=box, style="filled", color="black"] ;
0 [label="perimeter_worst <= 104.95\ngini = 0.474\nsamples = 381\nvalue = [234, 147]\nclass = malignant", fillcolor="#f5d0b5"] ;
1 [label="concave points_worst <= 0.135\ngini = 0.052\nsamples = 225\nvalue = [219, 6]\nclass = malignant", fillcolor="#e6843e"] ;
0 -> 1 [labeldistance=2.5, labelangle=45, headlabel="True"] ;
2 [label="area_se <= 48.975\ngini = 0.009\nsamples = 213\nvalue = [212, 1]\nclass = malignant", fillcolor="#e5823a"] ;
1 -> 2 ;
3 [label="gini = 0.0\nsamples = 210\nvalue = [210, 0]\nclass = malignant", fillcolor="#e58139"] ;
2 -> 3 ;
4 [label="compactness_worst <= 0.085\ngini = 0.444\nsamples = 3\nvalue = [2, 1]\nclass = malignant", fillcolor="#f2c09c"] ;
2 -> 4 ;
5 [label="gini = 0.0\nsamples = 1\nvalue = [0, 1]\nclass = benign", fillcolor="#399de5"] ;
4 -> 5 ;
6 [label="gini = 0.0\nsamples = 2\nvalue = [2, 0]\nclass = malignant", fillcolor="#e58139"] ;
4 -> 6 ;
7 [label="texture_worst <= 26.9\ngini = 0.486\nsamples = 12\nvalue = [7, 5]\nclass = malignant", fillcolor="#f8dbc6"] ;
1 -> 7 ;
8 [label="gini = 0.0\nsamples = 6\nvalue = [6, 0]\nclass = malignant", fillcolor="#e58139"] ;
7 -> 8 ;
9 [label="perimeter_se <= 1.616\ngini = 0.278\nsamples = 6\nvalue = [1, 5]\nclass = benign", fillcolor="#61b1ea"] ;
7 -> 9 ;
10 [label="gini = 0.0\nsamples = 1\nvalue = [1, 0]\nclass = malignant", fillcolor="#e58139"] ;
9 -> 10 ;
11 [label="gini = 0.0\nsamples = 5\nvalue = [0, 5]\nclass = benign", fillcolor="#399de5"] ;
9 -> 11 ;
12 [label="texture_worst <= 20.645\ngini = 0.174\nsamples = 156\nvalue = [15, 141]\nclass = benign", fillcolor="#4ea7e8"] ;
0 -> 12 [labeldistance=2.5, labelangle=-45, headlabel="False"] ;
13 [label="radius_worst <= 17.74\ngini = 0.426\nsamples = 13\nvalue = [9, 4]\nclass = malignant", fillcolor="#f1b991"] ;
12 -> 13 ;
14 [label="gini = 0.0\nsamples = 8\nvalue = [8, 0]\nclass = malignant", fillcolor="#e58139"] ;
13 -> 14 ;
15 [label="smoothness_worst <= 0.106\ngini = 0.32\nsamples = 5\nvalue = [1, 4]\nclass = benign", fillcolor="#6ab6ec"] ;
13 -> 15 ;
16 [label="gini = 0.0\nsamples = 1\nvalue = [1, 0]\nclass = malignant", fillcolor="#e58139"] ;
15 -> 16 ;
17 [label="gini = 0.0\nsamples = 4\nvalue = [0, 4]\nclass = benign", fillcolor="#399de5"] ;
15 -> 17 ;
18 [label="smoothness_worst <= 0.098\ngini = 0.08\nsamples = 143\nvalue = [6, 137]\nclass = benign", fillcolor="#42a1e6"] ;
12 -> 18 ;
19 [label="gini = 0.0\nsamples = 2\nvalue = [2, 0]\nclass = malignant", fillcolor="#e58139"] ;
18 -> 19 ;
20 [label="concave points_mean <= 0.049\ngini = 0.055\nsamples = 141\nvalue = [4, 137]\nclass = benign", fillcolor="#3fa0e6"] ;
18 -> 20 ;
21 [label="concave points_se <= 0.01\ngini = 0.426\nsamples = 13\nvalue = [4, 9]\nclass = benign", fillcolor="#91c9f1"] ;
20 -> 21 ;
22 [label="gini = 0.0\nsamples = 9\nvalue = [0, 9]\nclass = benign", fillcolor="#399de5"] ;
21 -> 22 ;
23 [label="gini = 0.0\nsamples = 4\nvalue = [4, 0]\nclass = malignant", fillcolor="#e58139"] ;
21 -> 23 ;
24 [label="gini = 0.0\nsamples = 128\nvalue = [0, 128]\nclass = benign", fillcolor="#399de5"] ;
20 -> 24 ;
}