digraph Tree {
node [shape=box, style="filled", color="black"] ;
0 [label="area_worst <= -0.006\nentropy = 0.957\nsamples = 381\nvalue = [237, 144]\nclass = malignant", fillcolor="#f5ceb1"] ;
1 [label="concave points_mean <= -0.007\nentropy = 0.46\nsamples = 257\nvalue = [232, 25]\nclass = malignant", fillcolor="#e88f4e"] ;
0 -> 1 [labeldistance=2.5, labelangle=45, headlabel="True"] ;
2 [label="area_se <= 0.153\nentropy = 0.106\nsamples = 216\nvalue = [213, 3]\nclass = malignant", fillcolor="#e5833c"] ;
1 -> 2 ;
3 [label="texture_worst <= 1.298\nentropy = 0.043\nsamples = 213\nvalue = [212, 1]\nclass = malignant", fillcolor="#e5823a"] ;
2 -> 3 ;
4 [label="entropy = 0.0\nsamples = 200\nvalue = [200, 0]\nclass = malignant", fillcolor="#e58139"] ;
3 -> 4 ;
5 [label="texture_worst <= 1.347\nentropy = 0.391\nsamples = 13\nvalue = [12, 1]\nclass = malignant", fillcolor="#e78c49"] ;
3 -> 5 ;
6 [label="entropy = 0.0\nsamples = 1\nvalue = [0, 1]\nclass = benign", fillcolor="#399de5"] ;
5 -> 6 ;
7 [label="entropy = 0.0\nsamples = 12\nvalue = [12, 0]\nclass = malignant", fillcolor="#e58139"] ;
5 -> 7 ;
8 [label="fractal_dimension_se <= 0.117\nentropy = 0.918\nsamples = 3\nvalue = [1, 2]\nclass = benign", fillcolor="#9ccef2"] ;
2 -> 8 ;
9 [label="entropy = 0.0\nsamples = 2\nvalue = [0, 2]\nclass = benign", fillcolor="#399de5"] ;
8 -> 9 ;
10 [label="entropy = 0.0\nsamples = 1\nvalue = [1, 0]\nclass = malignant", fillcolor="#e58139"] ;
8 -> 10 ;
11 [label="concavity_worst <= 0.176\nentropy = 0.996\nsamples = 41\nvalue = [19, 22]\nclass = benign", fillcolor="#e4f2fb"] ;
1 -> 11 ;
12 [label="entropy = 0.0\nsamples = 14\nvalue = [14, 0]\nclass = malignant", fillcolor="#e58139"] ;
11 -> 12 ;
13 [label="texture_worst <= -0.531\nentropy = 0.691\nsamples = 27\nvalue = [5, 22]\nclass = benign", fillcolor="#66b3eb"] ;
11 -> 13 ;
14 [label="smoothness_mean <= 0.765\nentropy = 0.722\nsamples = 5\nvalue = [4, 1]\nclass = malignant", fillcolor="#eca06a"] ;
13 -> 14 ;
15 [label="entropy = 0.0\nsamples = 4\nvalue = [4, 0]\nclass = malignant", fillcolor="#e58139"] ;
14 -> 15 ;
16 [label="entropy = 0.0\nsamples = 1\nvalue = [0, 1]\nclass = benign", fillcolor="#399de5"] ;
14 -> 16 ;
17 [label="symmetry_worst <= -0.396\nentropy = 0.267\nsamples = 22\nvalue = [1, 21]\nclass = benign", fillcolor="#42a2e6"] ;
13 -> 17 ;
18 [label="entropy = 0.0\nsamples = 1\nvalue = [1, 0]\nclass = malignant", fillcolor="#e58139"] ;
17 -> 18 ;
19 [label="entropy = 0.0\nsamples = 21\nvalue = [0, 21]\nclass = benign", fillcolor="#399de5"] ;
17 -> 19 ;
20 [label="concavity_mean <= -0.233\nentropy = 0.244\nsamples = 124\nvalue = [5, 119]\nclass = benign", fillcolor="#41a1e6"] ;
0 -> 20 [labeldistance=2.5, labelangle=-45, headlabel="False"] ;
21 [label="texture_mean <= -0.061\nentropy = 0.94\nsamples = 14\nvalue = [5, 9]\nclass = benign", fillcolor="#a7d3f3"] ;
20 -> 21 ;
22 [label="entropy = 0.0\nsamples = 5\nvalue = [5, 0]\nclass = malignant", fillcolor="#e58139"] ;
21 -> 22 ;
23 [label="entropy = 0.0\nsamples = 9\nvalue = [0, 9]\nclass = benign", fillcolor="#399de5"] ;
21 -> 23 ;
24 [label="entropy = 0.0\nsamples = 110\nvalue = [0, 110]\nclass = benign", fillcolor="#399de5"] ;
20 -> 24 ;
}