digraph Tree {
node [shape=box, style="filled", color="black"] ;
0 [label="concave points_mean <= 0.052\ngini = 0.463\nsamples = 381\nvalue = [242, 139]\nclass = malignant", fillcolor="#f4c9ab"] ;
1 [label="area_mean <= 696.25\ngini = 0.051\nsamples = 231\nvalue = [225, 6]\nclass = malignant", fillcolor="#e6843e"] ;
0 -> 1 [labeldistance=2.5, labelangle=45, headlabel="True"] ;
2 [label="radius_worst <= 16.83\ngini = 0.026\nsamples = 226\nvalue = [223, 3]\nclass = malignant", fillcolor="#e5833c"] ;
1 -> 2 ;
3 [label="smoothness_se <= 0.003\ngini = 0.018\nsamples = 223\nvalue = [221, 2]\nclass = malignant", fillcolor="#e5823b"] ;
2 -> 3 ;
4 [label="perimeter_worst <= 99.845\ngini = 0.278\nsamples = 6\nvalue = [5, 1]\nclass = malignant", fillcolor="#ea9a61"] ;
3 -> 4 ;
5 [label="gini = 0.0\nsamples = 5\nvalue = [5, 0]\nclass = malignant", fillcolor="#e58139"] ;
4 -> 5 ;
6 [label="gini = 0.0\nsamples = 1\nvalue = [0, 1]\nclass = benign", fillcolor="#399de5"] ;
4 -> 6 ;
7 [label="texture_worst <= 32.83\ngini = 0.009\nsamples = 217\nvalue = [216, 1]\nclass = malignant", fillcolor="#e5823a"] ;
3 -> 7 ;
8 [label="gini = 0.0\nsamples = 200\nvalue = [200, 0]\nclass = malignant", fillcolor="#e58139"] ;
7 -> 8 ;
9 [label="texture_worst <= 33.56\ngini = 0.111\nsamples = 17\nvalue = [16, 1]\nclass = malignant", fillcolor="#e78945"] ;
7 -> 9 ;
10 [label="gini = 0.0\nsamples = 1\nvalue = [0, 1]\nclass = benign", fillcolor="#399de5"] ;
9 -> 10 ;
11 [label="gini = 0.0\nsamples = 16\nvalue = [16, 0]\nclass = malignant", fillcolor="#e58139"] ;
9 -> 11 ;
12 [label="fractal_dimension_mean <= 0.06\ngini = 0.444\nsamples = 3\nvalue = [2, 1]\nclass = malignant", fillcolor="#f2c09c"] ;
2 -> 12 ;
13 [label="gini = 0.0\nsamples = 2\nvalue = [2, 0]\nclass = malignant", fillcolor="#e58139"] ;
12 -> 13 ;
14 [label="gini = 0.0\nsamples = 1\nvalue = [0, 1]\nclass = benign", fillcolor="#399de5"] ;
12 -> 14 ;
15 [label="texture_mean <= 18.68\ngini = 0.48\nsamples = 5\nvalue = [2, 3]\nclass = benign", fillcolor="#bddef6"] ;
1 -> 15 ;
16 [label="gini = 0.0\nsamples = 2\nvalue = [2, 0]\nclass = malignant", fillcolor="#e58139"] ;
15 -> 16 ;
17 [label="gini = 0.0\nsamples = 3\nvalue = [0, 3]\nclass = benign", fillcolor="#399de5"] ;
15 -> 17 ;
18 [label="area_worst <= 710.2\ngini = 0.201\nsamples = 150\nvalue = [17, 133]\nclass = benign", fillcolor="#52aae8"] ;
0 -> 18 [labeldistance=2.5, labelangle=-45, headlabel="False"] ;
19 [label="texture_worst <= 25.675\ngini = 0.375\nsamples = 16\nvalue = [12, 4]\nclass = malignant", fillcolor="#eeab7b"] ;
18 -> 19 ;
20 [label="gini = 0.0\nsamples = 11\nvalue = [11, 0]\nclass = malignant", fillcolor="#e58139"] ;
19 -> 20 ;
21 [label="fractal_dimension_worst <= 0.086\ngini = 0.32\nsamples = 5\nvalue = [1, 4]\nclass = benign", fillcolor="#6ab6ec"] ;
19 -> 21 ;
22 [label="gini = 0.0\nsamples = 1\nvalue = [1, 0]\nclass = malignant", fillcolor="#e58139"] ;
21 -> 22 ;
23 [label="gini = 0.0\nsamples = 4\nvalue = [0, 4]\nclass = benign", fillcolor="#399de5"] ;
21 -> 23 ;
24 [label="concavity_worst <= 0.216\ngini = 0.072\nsamples = 134\nvalue = [5, 129]\nclass = benign", fillcolor="#41a1e6"] ;
18 -> 24 ;
25 [label="compactness_mean <= 0.083\ngini = 0.32\nsamples = 5\nvalue = [4, 1]\nclass = malignant", fillcolor="#eca06a"] ;
24 -> 25 ;
26 [label="gini = 0.0\nsamples = 1\nvalue = [0, 1]\nclass = benign", fillcolor="#399de5"] ;
25 -> 26 ;
27 [label="gini = 0.0\nsamples = 4\nvalue = [4, 0]\nclass = malignant", fillcolor="#e58139"] ;
25 -> 27 ;
28 [label="texture_mean <= 14.12\ngini = 0.015\nsamples = 129\nvalue = [1, 128]\nclass = benign", fillcolor="#3b9ee5"] ;
24 -> 28 ;
29 [label="fractal_dimension_worst <= 0.105\ngini = 0.5\nsamples = 2\nvalue = [1, 1]\nclass = malignant", fillcolor="#ffffff"] ;
28 -> 29 ;
30 [label="gini = 0.0\nsamples = 1\nvalue = [1, 0]\nclass = malignant", fillcolor="#e58139"] ;
29 -> 30 ;
31 [label="gini = 0.0\nsamples = 1\nvalue = [0, 1]\nclass = benign", fillcolor="#399de5"] ;
29 -> 31 ;
32 [label="gini = 0.0\nsamples = 127\nvalue = [0, 127]\nclass = benign", fillcolor="#399de5"] ;
28 -> 32 ;
}